
Christian 0.4296875 -0.04248047 0.16992188 -0.056884766 -0.20019531 -0.03491211 -0.083496094 -0.03515625 -0.064941406 0.00289917 -0.034179688 0.14160156 0.0051574707 0.25976562 -0.123535156 -0.040039062 -0.19433594 0.18945312 -0.14746094 0.07470703 0.2890625 0.3125 -0.07470703 -0.056640625 0.09423828 -0.020629883 -0.014465332 -0.029541016 0.43164062 -0.045898438 0.24609375 0.10839844 -0.12792969 -0.076171875 -0.08300781 -0.0021362305 0.10644531 -0.08496094 -0.014099121 0.15625 0.1640625 0.025634766 -0.057128906 0.19628906 -0.023925781 0.0027313232 -0.068359375 0.024169922 -0.013427734 -0.00970459 0.041015625 0.17773438 -0.32421875 -0.14453125 0.16796875 0.171875 -0.13671875 0.30664062 -0.17089844 -0.31054688 0.0859375 0.0009841919 -0.13476562 -0.08300781 0.15332031 -0.16796875 0.083984375 -0.025756836 0.18457031 0.0012664795 -0.04248047 -0.016113281 -0.2421875 0.111816406 0.0023498535 0.021362305 0.08691406 -0.056152344 0.20410156 0.057861328 -0.33984375 -0.12695312 0.11767578 0.08496094 -0.16699219 -0.23828125 -0.17578125 0.15625 0.021972656 0.06933594 -0.059814453 -0.25585938 0.033935547 -0.11425781 0.017456055 0.015380859 0.036132812 0.08154297 -0.19238281 -0.15429688 -0.017822266 0.26953125 0.13867188 0.060791016 0.20019531 -0.036621094 0.19628906 -0.07910156 0.0067749023 0.041259766 0.01586914 -0.15332031 -0.09423828 -0.013427734 -0.040771484 0.13183594 -0.11669922 0.17675781 0.15917969 0.19042969 0.24707031 -0.012390137 0.09863281 -0.18945312 -0.40039062 -0.053466797 -0.080078125 -0.24804688 -0.1640625 -0.13085938 -0.0703125 -0.088378906 -0.203125 -0.095703125 0.15429688 -0.041259766 0.060302734 0.23242188 0.32226562 0.041015625 0.030029297 -0.20703125 0.28710938 -0.1875 -0.122558594 0.28515625 0.265625 -0.036621094 -0.030883789 -0.111328125 0.2578125 -0.013366699 -0.12011719 0.026367188 0.17773438 0.033447266 0.01965332 -0.23242188 0.15722656 -0.14941406 -0.15332031 0.08544922 0.029052734 -0.018798828 -0.026000977 0.040039062 -0.0013122559 0.038330078 -0.265625 0.16601562 -0.11767578 0.020629883 0.041992188 -0.37695312 0.38867188 0.104003906 0.03857422 -0.040771484 -0.17382812 0.05859375 -0.18554688 -0.35546875 0.030151367 0.19140625 -0.05444336 -0.20117188 0.037109375 -0.14550781 -0.10058594 0.10595703 0.13574219 0.03540039 0.030151367 0.20019531 -0.25390625 0.049560547 -0.003250122 0.021118164 0.21972656 0.076171875 0.22460938 0.09765625 0.092285156 -0.22167969 0.025024414 -0.049560547 0.15136719 -0.109375 0.13085938 -0.114746094 -0.18554688 -0.14941406 0.12695312 -0.092285156 -0.05908203 -0.029052734 -0.056396484 0.049560547 0.03173828 -0.056884766 0.18261719 -0.033935547 0.18652344 -0.0075683594 -0.025268555 -0.119628906 0.034179688 0.19042969 0.15527344 0.014099121 0.08203125 -0.16894531 -0.1015625 0.11767578 0.15917969 0.084472656 0.13574219 -0.11621094 -0.14648438 0.12695312 0.15332031 -0.057128906 0.12695312 -0.32226562 -0.27148438 0.15039062 0.03149414 0.05810547 -0.14941406 -0.24609375 -0.08300781 -0.052978516 -0.037841797 0.014465332 0.01977539 0.16699219 0.15234375 -0.12597656 0.3671875 -0.057861328 -0.20703125 0.10839844 0.078125 -0.11279297 0.007751465 0.3359375 0.375 0.091796875 -0.040527344 0.09375 0.03149414 -0.10498047 -0.14648438 0.06201172 -0.06298828 0.00970459 -0.037597656 -0.24707031 0.100097656 0.12890625 0.057617188 -0.04272461 0.08105469 0.29492188 -0.012939453 0.10595703 0.20898438 -0.036621094 -0.24511719 0.13769531 0.10107422 -0.0066223145 -0.39648438 0.08203125 -0.044433594 -0.04248047 0.06982422 0.025512695 0.13085938 0.26367188 
Muslim 0.19042969 -0.08691406 0.3828125 0.25195312 -0.3984375 -0.005584717 -0.18457031 0.2265625 -0.028198242 0.35742188 -0.007171631 0.10058594 -0.0546875 0.14257812 -0.13867188 -0.055419922 -0.14257812 0.011657715 -0.06689453 0.033935547 0.17285156 0.087890625 0.055419922 -0.30273438 -0.005554199 0.16015625 -0.18359375 -0.028320312 0.6484375 -0.022094727 0.09472656 0.032714844 -0.23046875 0.10644531 -0.25585938 0.1796875 0.08300781 0.23730469 -0.30664062 0.18164062 0.26757812 0.32226562 -0.17675781 0.107910156 -0.09472656 -0.21582031 -0.13085938 -0.12011719 -0.18359375 -0.14941406 0.37109375 0.032470703 -0.114746094 0.19726562 -0.068359375 -0.048339844 -0.096191406 0.14160156 -0.14257812 -0.44335938 0.13964844 -0.25195312 -0.024780273 -0.115722656 0.1953125 0.15429688 -0.140625 -0.06591797 0.076660156 -0.22070312 -0.038085938 0.33984375 -0.28515625 0.23632812 0.087890625 -0.23828125 -0.068847656 -0.009643555 0.24414062 0.07910156 -0.080078125 0.06738281 0.19824219 0.064941406 -0.24707031 -0.32617188 -0.24023438 -0.014465332 4.5776367e-05 0.18164062 -0.20800781 -0.29101562 -0.27734375 -0.34765625 -0.09765625 -0.22753906 0.00034713745 0.091308594 0.20996094 -0.17382812 0.10498047 -0.057373047 -0.041992188 0.16503906 0.13574219 -0.03930664 -0.14453125 0.12060547 0.030517578 0.05493164 0.011047363 -0.28515625 -0.09863281 -0.09716797 -0.17871094 -0.111816406 -0.13867188 0.14746094 0.31835938 0.08935547 0.091796875 0.14453125 -0.20214844 -0.22949219 -0.22949219 0.0625 -0.18554688 -0.24121094 -0.006225586 -0.25390625 0.08203125 -0.10205078 -0.28125 0.15332031 -0.02319336 0.0066833496 0.009643555 0.08984375 0.43359375 0.072265625 -0.055908203 -0.24707031 0.018554688 -0.09082031 -0.07080078 -0.048828125 0.068847656 0.18847656 0.30664062 0.024536133 0.20117188 -0.043701172 -0.15722656 -0.08203125 0.23828125 -0.34179688 -0.07421875 -0.45898438 0.50390625 -0.2578125 -0.33007812 -0.23925781 0.28515625 -0.13476562 -0.040527344 -0.18652344 0.296875 0.21582031 -0.063964844 0.22460938 -0.14648438 -0.020751953 -0.3359375 -0.27539062 0.17578125 0.032714844 0.19140625 -0.12988281 -0.11425781 -0.32226562 0.107910156 -0.080566406 -0.26171875 -0.13671875 0.171875 -0.103027344 -0.0028533936 -0.026489258 0.16796875 0.26953125 -0.096191406 -0.17578125 0.29492188 0.03881836 -0.13964844 0.19140625 -0.115234375 0.15136719 0.05419922 -0.024658203 -0.04736328 -0.053710938 -0.010070801 -0.22558594 0.15527344 -0.16308594 0.14941406 -0.24414062 0.05078125 -0.16503906 0.045410156 -0.03491211 0.03955078 -0.24023438 -0.016723633 0.08935547 -0.42578125 0.2734375 0.12451172 -0.25976562 -0.16699219 -0.18652344 -0.011108398 -0.079589844 -0.091796875 -0.20996094 -0.016723633 0.056884766 0.25 -0.16601562 0.24023438 -0.14160156 0.04296875 0.06689453 0.083984375 -0.109375 0.2734375 -0.07324219 0.08496094 0.24023438 0.40625 -0.140625 0.19726562 -0.1328125 -0.14355469 -0.27539062 -0.009643555 -0.028686523 -0.13085938 -0.25976562 0.05078125 -0.068847656 0.048339844 0.14550781 0.14648438 -0.033447266 0.045166016 -0.15136719 -0.057373047 0.1171875 -0.2890625 0.087402344 -0.031982422 -0.20410156 -0.087402344 0.26367188 0.008239746 -0.3203125 0.04638672 -0.07910156 -0.15625 0.25195312 -0.034423828 0.072753906 0.07373047 -0.17578125 0.06591797 -0.22265625 -0.18359375 -0.091308594 0.06738281 -0.03930664 -0.33007812 0.171875 0.07519531 -0.25585938 -0.17871094 0.103027344 -0.14648438 -0.075683594 0.099609375 0.06542969 -0.33789062 0.060302734 -0.20117188 0.23242188 0.17773438 -0.076171875 0.27929688 0.26171875 
christian 0.16503906 -0.055419922 0.22167969 0.3984375 -0.15917969 -0.042236328 -0.2734375 0.060546875 -0.026000977 0.057128906 0.13476562 -0.15332031 -0.265625 0.14746094 -0.05810547 0.2578125 -0.22363281 0.13964844 -0.067871094 -0.16503906 0.33007812 0.14648438 0.26367188 -0.18359375 -0.013549805 0.25976562 -0.22949219 -0.04736328 0.30273438 -0.25195312 0.19335938 -0.012939453 -0.25585938 0.15527344 -0.27539062 -0.05053711 0.16210938 0.11230469 0.095214844 -0.012756348 0.25585938 0.11230469 0.22851562 0.32421875 -0.018432617 -0.32617188 -0.106933594 -0.060791016 -0.27929688 -0.16210938 0.084472656 0.15820312 0.055908203 -0.0067749023 0.16699219 0.024902344 -0.43359375 0.109375 -0.041748047 -0.09033203 0.22460938 -0.084472656 -0.0546875 -0.13574219 0.0546875 -0.2890625 -0.14453125 -0.047851562 -0.0014038086 0.009277344 0.24804688 -0.034423828 -0.24707031 0.34375 -0.15527344 0.08105469 0.034179688 -0.107910156 -0.059326172 0.115722656 -0.33984375 0.15820312 0.13964844 0.08984375 -0.12988281 -0.08105469 -0.103027344 -0.0036621094 0.08544922 0.14453125 -0.045166016 0.07324219 0.032470703 -0.15820312 -0.0038757324 0.05126953 -0.14550781 -0.2109375 0.41601562 -0.1796875 -0.08984375 0.40820312 0.27929688 0.16015625 0.10644531 0.12060547 -0.23339844 0.3515625 0.1796875 -0.296875 -0.1640625 -0.27539062 -0.20117188 0.1015625 -0.061035156 -0.0059814453 -0.123046875 -0.04321289 0.203125 0.2109375 0.29882812 -0.026245117 0.0859375 -0.16210938 -0.064941406 -0.032714844 -0.25976562 -0.032958984 0.028442383 -0.15136719 -0.13769531 -0.25195312 0.18066406 0.10644531 0.17871094 -0.21875 -0.16894531 0.01953125 0.3359375 0.12988281 0.09375 -0.19921875 0.14746094 -0.11621094 -0.35546875 0.15136719 0.31835938 -0.11767578 0.26171875 -0.27148438 0.36914062 -0.24511719 -0.18164062 0.060791016 -0.09082031 -0.17285156 0.083496094 -0.084472656 0.17675781 -0.25 0.061279297 -0.060058594 -0.009155273 -0.0859375 0.052001953 -0.13085938 0.052001953 0.17773438 -0.5546875 0.23632812 -0.26953125 -0.08984375 -0.038085938 -0.36523438 0.24023438 0.18652344 0.27539062 -0.31835938 0.13476562 -0.1640625 -0.22167969 -0.08154297 -0.06738281 -0.0014648438 0.05053711 0.13964844 0.002960205 -0.10595703 0.049560547 0.09423828 0.09765625 0.20214844 -0.18261719 -0.14746094 0.18847656 0.3515625 -0.13964844 0.26953125 0.12890625 0.075683594 -0.14648438 -0.025878906 -0.006713867 -0.31054688 -0.06982422 0.0051574707 0.17675781 -0.29882812 -0.022583008 0.18164062 -0.045410156 0.084472656 -0.08251953 -0.41992188 -0.13574219 0.07714844 0.012573242 -0.13671875 -0.024536133 -0.22851562 0.10498047 -0.03857422 0.48046875 0.25585938 0.036132812 -0.04663086 0.21289062 -0.012512207 -0.088378906 0.11279297 0.1484375 -0.19335938 -0.23925781 -0.009033203 0.10205078 0.21386719 0.421875 0.10888672 -0.060058594 0.1640625 0.34960938 0.03515625 0.15527344 -0.05102539 -0.23828125 0.26953125 0.087402344 0.19238281 -0.28125 -0.19824219 0.17089844 -0.11279297 0.22558594 0.13183594 0.43164062 -0.14648438 0.03930664 -0.08203125 0.25195312 -0.23242188 -0.076171875 -0.140625 0.22949219 -0.43164062 0.064941406 0.13964844 0.09033203 0.26367188 0.02368164 -0.18847656 -0.32617188 -0.1328125 0.045166016 0.140625 -0.024169922 -0.16113281 -0.14746094 -0.36132812 -0.12792969 0.4453125 -0.05126953 0.15722656 0.050048828 0.12451172 -0.16699219 -0.16308594 0.20996094 -0.1328125 -0.13671875 -0.076660156 0.22363281 0.34375 -0.25585938 0.21484375 -0.080078125 -0.017211914 0.07080078 -0.014587402 -0.096191406 0.3125 
muslim 0.036621094 -0.11425781 0.3359375 0.4296875 -0.26367188 0.09082031 -0.40820312 0.10253906 0.09423828 0.14453125 0.05053711 -0.28125 -0.34179688 0.08496094 -0.09423828 0.15820312 -0.20605469 0.060302734 -0.18359375 -0.14257812 0.16503906 0.0027008057 0.40625 -0.3359375 -0.10107422 0.22167969 -0.27929688 -0.0062561035 0.38085938 -0.18261719 0.23242188 0.00074768066 -0.27148438 0.23828125 -0.26953125 0.09033203 0.13476562 -0.012451172 0.09423828 0.32421875 0.18164062 0.31835938 0.003250122 0.026000977 0.083984375 -0.41601562 0.09277344 -0.234375 -0.24511719 -0.23925781 0.20214844 -0.00065231323 0.06347656 0.16015625 0.024780273 -0.16503906 -0.33203125 0.22851562 0.034423828 -0.39453125 0.3203125 -0.19335938 -0.020507812 -0.13085938 0.064453125 -0.21679688 0.0012741089 -0.004486084 -0.076171875 -0.08105469 0.12451172 0.37890625 -0.20019531 0.19140625 -0.13574219 -0.12402344 -0.14160156 -0.052734375 0.12597656 -0.036865234 -0.2734375 0.20898438 0.06298828 0.037841797 -0.0703125 -0.21679688 -0.22070312 0.08642578 0.06591797 0.16210938 -0.12597656 -0.079589844 -0.18652344 -0.24316406 -0.076171875 -0.122558594 -0.025146484 0.068847656 0.6171875 -0.16992188 0.096191406 -0.008422852 0.13769531 0.30664062 -0.016479492 -0.028198242 -0.13183594 0.22167969 0.08105469 -0.099121094 -0.10253906 -0.37695312 -0.24316406 0.09765625 -0.14160156 -0.10205078 -0.07861328 -0.100097656 0.203125 0.07470703 -0.07324219 0.16503906 -0.19238281 -0.21484375 -0.25 0.012939453 -0.234375 -0.21484375 0.072753906 -0.40429688 0.10449219 0.059326172 0.040771484 0.11816406 0.08642578 -0.19726562 -0.25390625 0.018798828 0.390625 -0.008483887 0.049804688 -0.25976562 0.17382812 -0.17285156 -0.16015625 0.07714844 0.061279297 0.095214844 0.46289062 -0.29492188 0.33398438 -0.28125 -0.05810547 -0.19824219 -0.09814453 -0.4765625 -0.115722656 -0.265625 0.3828125 -0.21679688 -0.12695312 -0.19335938 0.16796875 -0.30859375 -0.07373047 -0.36328125 0.091796875 0.25585938 -0.11376953 0.28125 -0.3203125 0.07470703 -0.27734375 -0.24121094 0.14941406 0.026489258 0.34960938 -0.38671875 0.14648438 -0.43554688 0.20605469 -0.13769531 -0.25195312 -0.08251953 0.11816406 0.14941406 -0.0625 0.026000977 0.19726562 0.18847656 -0.06738281 0.04321289 0.011291504 0.012512207 0.35351562 0.18847656 -0.119140625 0.11816406 0.03515625 0.024780273 -0.31835938 0.119140625 -0.1015625 -0.46679688 0.061767578 -0.09326172 0.29101562 -0.083984375 0.0078125 0.030029297 0.17382812 0.11425781 -0.23535156 -0.453125 -0.06738281 0.021728516 -0.15917969 -0.072265625 0.04736328 -0.11376953 -0.2734375 -0.1953125 0.09277344 -0.15429688 -0.0859375 -0.15820312 0.234375 0.08544922 0.026245117 -0.1328125 0.46484375 -0.10253906 0.064941406 -0.040527344 -0.019897461 -0.075683594 0.23730469 0.01574707 0.21875 0.36328125 0.27734375 0.031982422 0.25 0.08300781 -0.25585938 -0.14355469 -0.0030517578 0.19335938 -0.23730469 -0.30859375 0.12597656 0.040283203 0.056396484 0.296875 0.28125 -0.111328125 -0.022949219 -0.13085938 0.009399414 -0.00680542 -0.034179688 -0.091308594 0.018432617 -0.49414062 -0.03515625 0.12011719 0.064453125 -0.045166016 -0.084472656 -0.07910156 -0.31835938 0.12792969 -0.09326172 0.19335938 0.084472656 -0.20019531 0.099121094 -0.16113281 -0.35351562 0.14355469 -0.040283203 0.05444336 -0.390625 0.15625 0.0045776367 -0.16992188 -0.17382812 -0.052246094 -0.06298828 -0.026977539 0.18457031 0.119140625 -0.24023438 0.10546875 -0.29101562 0.0625 0.05419922 0.010192871 0.18457031 0.21777344 
Christ 0.26171875 -0.17480469 0.010009766 0.1640625 0.068847656 0.18945312 0.07910156 0.010559082 0.05859375 0.15625 0.018798828 0.28320312 -0.017944336 0.33398438 0.055664062 0.10205078 -0.106933594 0.21679688 0.0051879883 0.033447266 0.27734375 -0.15527344 0.22265625 -0.17382812 0.052490234 -0.123046875 -0.13476562 0.028686523 0.24414062 -0.14746094 -0.13964844 0.030761719 -0.17871094 -0.08691406 -0.09423828 -0.24804688 0.16601562 -0.1640625 0.038330078 0.032714844 -0.002319336 -0.08984375 -0.11425781 -0.022583008 0.1015625 -0.07421875 0.079589844 0.23144531 -0.050048828 0.09375 -0.048339844 0.18945312 -0.41601562 -0.083984375 0.37304688 -0.024047852 -0.123046875 0.08886719 -0.14453125 -0.06933594 0.32617188 0.26171875 -0.21875 0.15625 0.328125 -0.18457031 -0.21289062 -0.020751953 -0.083496094 -0.13964844 -0.20214844 0.09033203 -0.15820312 0.24414062 0.23632812 -0.24316406 0.041015625 -0.041015625 0.48046875 -0.15917969 -0.31054688 -0.24121094 -0.0075683594 -0.09277344 -0.0703125 0.056152344 -0.33984375 0.15820312 0.49804688 0.03564453 0.041748047 -0.0154418945 -0.1328125 -0.42578125 -0.026489258 0.028076172 -0.34570312 0.011413574 0.24023438 -0.34570312 -0.12890625 0.29492188 0.37109375 -0.22460938 0.18457031 -0.13964844 0.088378906 0.23828125 -0.0859375 0.068847656 -0.31054688 0.040771484 0.25390625 -0.05444336 0.34375 0.16210938 0.024169922 -0.03857422 0.19140625 0.18554688 0.16894531 -0.115722656 0.078125 -0.17871094 -0.546875 0.13671875 -0.037109375 -0.029907227 -0.09667969 0.12695312 -0.29296875 0.111328125 -0.17285156 -0.26953125 0.30078125 0.021118164 -0.13378906 -0.09667969 0.29101562 0.31054688 0.037597656 0.16699219 0.15820312 -0.546875 0.0859375 0.23242188 0.37695312 -0.15332031 -0.25976562 -0.17675781 0.15429688 -0.12890625 -0.03564453 0.38085938 0.016601562 0.23632812 -0.07714844 -0.01965332 0.24316406 -0.12792969 -0.20898438 -0.050048828 -0.06933594 -0.0019836426 -0.071777344 0.10546875 0.05102539 0.19335938 -0.041259766 0.31054688 0.09814453 0.083984375 0.12109375 -0.14941406 0.1796875 -0.1328125 -0.043945312 -0.076171875 -0.13574219 -0.36914062 -0.34570312 -0.059570312 0.10839844 0.020385742 -0.33984375 -0.08300781 -0.115722656 0.006164551 0.091796875 0.03564453 0.11035156 0.20605469 -0.26953125 0.25390625 -0.26367188 0.07763672 0.16796875 -0.25195312 0.06591797 -0.15820312 0.060546875 -0.25976562 -0.125 -0.29492188 -0.16503906 -0.18652344 0.12109375 0.068847656 -0.00040626526 -0.20898438 -0.47265625 0.28515625 -0.091796875 -0.27734375 -0.39648438 -0.19042969 0.009887695 0.31054688 -0.111816406 -0.037841797 -0.118652344 0.028076172 0.44140625 -0.0390625 0.12597656 -0.08544922 -0.171875 0.13671875 0.14550781 0.033691406 -0.0033721924 -0.23535156 -0.19433594 0.18457031 0.07763672 -0.02709961 0.036621094 -0.08691406 0.04345703 0.06933594 0.16210938 -0.26757812 -0.12597656 -0.328125 -0.1953125 0.091308594 -0.1875 0.05908203 -0.27539062 -0.2109375 -0.08496094 -0.10449219 0.14257812 0.0006980896 0.19628906 0.047607422 0.22949219 -0.046875 0.20117188 -0.03491211 -0.13671875 -0.07128906 0.0087890625 -0.0625 -0.103515625 0.24902344 0.34375 0.03173828 0.05883789 0.13183594 -0.05834961 0.19824219 0.010986328 0.110839844 0.049560547 -0.024902344 -0.119140625 -0.03881836 0.12792969 0.16894531 -0.106933594 0.14453125 0.1875 0.25585938 -0.100097656 0.21386719 0.21582031 0.0051879883 -0.38085938 0.028930664 -0.092285156 -0.15722656 -0.20214844 -0.078125 -0.064941406 0.2421875 0.08496094 -0.44140625 -0.015563965 0.13769531 
Allah 0.45898438 0.09863281 0.041015625 0.34179688 0.020263672 0.140625 -0.20898438 0.265625 0.16015625 0.63671875 -0.08935547 0.08203125 -0.123046875 0.33398438 -0.44726562 -0.01953125 -0.14941406 -0.28515625 0.032226562 0.14648438 0.31445312 -0.12695312 0.32421875 -0.125 0.18457031 0.10498047 0.16992188 -0.03564453 0.16601562 -0.111328125 -0.09082031 0.09716797 -0.20214844 0.01586914 -0.37109375 0.23730469 -0.11669922 -0.12060547 0.36132812 -0.3515625 0.33398438 0.32421875 0.29492188 0.025146484 0.057373047 -0.41992188 0.059814453 -0.3515625 -0.40625 -0.46679688 -0.13671875 -0.035888672 0.23828125 0.30078125 0.18554688 -0.06933594 -0.31835938 0.044921875 -0.14257812 -0.22167969 0.28320312 0.04296875 0.3359375 0.21191406 0.10546875 0.11279297 0.061279297 0.068359375 -0.15722656 0.029418945 -0.20703125 0.13183594 -0.22070312 -0.12695312 -0.11425781 -0.41992188 0.16210938 -0.11376953 0.3671875 0.006713867 -0.28515625 0.010375977 -0.059814453 -0.23144531 -0.34960938 -0.05053711 0.036621094 0.3203125 0.17871094 -0.06689453 -0.03930664 -0.34765625 -0.22070312 -0.35742188 0.43164062 -0.07763672 -0.13476562 0.21972656 0.39257812 -0.4765625 -0.064453125 0.18457031 0.265625 -0.2890625 0.12597656 0.010192871 -0.42382812 0.16210938 -0.14160156 0.21875 -0.09667969 -0.22558594 0.55078125 0.063964844 0.27929688 -0.004486084 -0.28710938 0.01373291 -0.045654297 -0.071777344 -0.05883789 0.34375 -0.38671875 -0.13867188 -0.29492188 0.095703125 -0.28125 -0.58984375 0.13867188 0.07080078 -0.03100586 0.16992188 -0.26171875 -0.23828125 0.25 -0.22265625 0.08203125 -0.09375 0.671875 0.32226562 0.20410156 0.13183594 -0.18457031 -0.39453125 -0.06933594 -0.14160156 -0.060546875 -0.1015625 0.068847656 -0.31054688 0.37695312 0.16015625 -0.123046875 -0.2734375 0.04638672 -0.37695312 0.08642578 -0.017700195 0.38085938 -0.26171875 -0.5 -0.234375 0.22753906 0.018676758 -0.29296875 -0.6171875 0.16894531 0.076171875 -0.15820312 0.14746094 0.03491211 -0.15039062 -0.37695312 -0.390625 -0.14941406 -0.11376953 0.19726562 -0.26367188 -0.17871094 -0.8125 -0.26757812 -0.23925781 0.025512695 -0.24121094 -0.4140625 0.0063476562 -0.10888672 -0.13867188 0.13867188 0.24902344 -0.080566406 0.359375 0.20410156 0.23339844 -0.076171875 0.07861328 0.013244629 -0.13867188 -0.30078125 -0.47070312 -0.34570312 -0.33007812 -0.21191406 -0.23339844 -0.21679688 -0.32421875 -0.28320312 -0.13476562 0.0390625 -0.118652344 -0.15820312 0.013549805 -0.123046875 -0.5703125 0.052978516 0.028320312 -0.27929688 0.140625 -0.15527344 -0.18066406 0.12060547 -0.25195312 0.30664062 -0.032714844 -0.022094727 -0.059570312 0.022705078 0.29296875 0.06640625 -0.40820312 -0.052490234 0.051757812 -0.018310547 0.35351562 0.35742188 -0.12207031 0.0036621094 0.028198242 0.12451172 -0.052001953 0.19238281 -0.06982422 -0.07910156 -0.38867188 -0.20507812 -0.49804688 0.012390137 -0.018188477 -0.063964844 -0.09423828 0.13574219 -0.05493164 0.04272461 -0.09375 0.24121094 -0.40039062 -0.26953125 -0.1640625 0.122558594 0.23535156 -0.096191406 0.11621094 -0.18359375 -0.08935547 0.029296875 0.026733398 -0.11230469 -0.43164062 0.3828125 0.16113281 -0.091796875 0.19042969 0.011474609 0.17382812 -0.0024108887 0.099609375 -0.17871094 -0.35546875 -0.015075684 -0.12207031 -0.13378906 0.13671875 0.15136719 -0.037109375 0.20605469 0.171875 0.20898438 0.30664062 -0.20410156 0.43554688 0.110839844 -0.10839844 -0.16796875 -0.13671875 -0.18261719 0.4140625 0.11230469 -0.5 -0.3203125 0.2109375 
Jesus 0.44921875 -0.18457031 0.07763672 0.1640625 0.19824219 -0.022216797 -0.008728027 -0.0029754639 0.02722168 0.21875 0.026855469 0.16503906 -0.15429688 0.3125 0.048828125 -0.0058288574 -0.095703125 -0.003967285 -0.023803711 0.27539062 0.40039062 -0.057861328 0.12695312 -0.020263672 0.049560547 -0.040771484 -0.24414062 -0.13867188 0.14160156 -0.083496094 0.010253906 0.14648438 -0.12988281 0.03466797 -0.19335938 0.013977051 0.24316406 -0.12207031 0.020263672 -0.05126953 -0.0065612793 0.13574219 0.21289062 -0.01574707 -0.06225586 0.037353516 -0.02746582 0.13964844 -0.060302734 -0.03515625 -0.25390625 0.1328125 -0.31054688 -0.19726562 0.22070312 0.29492188 0.07373047 0.21484375 -0.037109375 -0.05834961 0.32617188 0.19824219 -0.2421875 -0.0036621094 0.390625 -0.24316406 -0.296875 -0.21289062 -0.099121094 -0.16796875 -0.1953125 0.10498047 -0.24316406 0.15039062 0.15332031 -0.031982422 0.13378906 0.11816406 0.25585938 -0.10449219 -0.07128906 -0.091796875 -0.06201172 -0.37890625 -0.29492188 -0.12011719 -0.22070312 0.19238281 0.31640625 -0.16308594 0.17285156 0.11816406 -0.19238281 -0.2578125 -0.059570312 -0.010498047 -0.026489258 0.11669922 0.31640625 -0.23828125 -0.2890625 0.25976562 0.1796875 -0.3125 0.18261719 -0.27539062 0.023803711 0.12207031 -0.13183594 0.017456055 0.026000977 -0.052978516 0.453125 -0.21777344 0.26953125 0.30664062 -0.16210938 -0.18652344 0.080566406 0.19628906 0.14160156 -0.28125 -0.088378906 -0.28125 -0.38085938 -0.03491211 -0.021484375 0.03955078 -0.16894531 -0.14550781 -0.44921875 -0.034423828 -0.22753906 -0.12011719 0.40234375 -0.029174805 -0.07763672 0.044921875 0.35742188 0.29492188 -0.04272461 0.013366699 0.115722656 -0.390625 -0.042236328 0.21875 0.42773438 -0.29296875 -0.26367188 -0.17089844 0.22167969 -0.19042969 -0.36328125 0.25976562 -0.07763672 0.20410156 -0.07128906 0.034423828 0.375 -0.31054688 0.00043296814 0.068359375 0.08886719 0.0018997192 -0.20117188 -0.0018386841 0.19433594 0.13769531 -0.12597656 0.03173828 0.0032196045 0.083496094 0.22363281 -0.21972656 0.11230469 0.20507812 0.12011719 -0.13378906 -0.25976562 -0.18945312 -0.49609375 -0.28320312 0.03515625 -0.083496094 -0.18066406 -0.13476562 -0.28515625 -0.068847656 0.18457031 0.16796875 -0.052246094 0.15820312 -0.022949219 0.14257812 -0.040527344 0.07763672 0.038085938 -0.27929688 -0.038330078 -0.25976562 0.16992188 -0.22070312 -0.38867188 -0.23242188 0.16015625 -0.10986328 0.122558594 0.01586914 -0.17382812 -0.12109375 -0.33203125 0.12060547 -0.08984375 -0.31640625 -0.296875 -0.091308594 -0.044433594 0.09716797 -0.16992188 -0.0079956055 0.009643555 0.26953125 0.33007812 -0.009155273 0.08886719 -0.34179688 -0.07861328 0.14550781 0.1875 0.0073242188 -0.07128906 -0.18554688 -0.27734375 0.29101562 0.19335938 -0.27148438 -0.053955078 0.17871094 0.08154297 0.12060547 -0.025024414 -0.34570312 -0.171875 -0.28710938 -0.171875 0.07421875 -0.16699219 0.12890625 -0.3203125 -0.115722656 -0.14941406 -0.1953125 -0.0067749023 0.12890625 0.09033203 0.04272461 0.064453125 -0.13378906 0.37890625 -0.20605469 -0.015380859 -0.07373047 -0.017944336 -0.18457031 0.0023040771 0.044189453 0.18164062 -0.15429688 0.052978516 -0.11328125 -0.18164062 0.38671875 0.18457031 0.30273438 0.14648438 0.00020122528 -0.22363281 -0.05078125 0.36328125 0.18652344 0.21875 0.27929688 0.20410156 0.2734375 0.048095703 -0.068847656 0.16113281 0.053222656 -0.2890625 -0.022338867 -0.018432617 -0.08154297 -0.109375 -0.19628906 -0.052246094 0.14746094 0.088378906 -0.546875 -0.21777344 0.16699219 
Muhammad 0.068847656 0.091796875 0.33789062 -0.084472656 0.19824219 0.31054688 -0.2109375 -0.095214844 -0.011291504 0.107421875 0.103515625 0.07128906 -0.05859375 0.10546875 -0.41992188 -0.08935547 -0.051513672 -0.36328125 -0.0625 0.23242188 -0.23632812 -0.040039062 -0.0115356445 0.061523438 0.080078125 -0.061035156 -0.17871094 -0.083496094 0.22070312 -0.14355469 -0.19335938 0.049072266 0.088378906 0.07714844 -0.091308594 0.30078125 0.22363281 0.025756836 -0.27734375 0.12207031 0.026855469 0.19628906 0.15136719 -0.05102539 0.040527344 -0.040039062 0.10888672 -0.29101562 0.01373291 -0.037109375 0.08886719 -0.18945312 -0.12402344 -0.28710938 -0.3046875 0.040283203 -0.14941406 0.30664062 -0.18457031 -0.31835938 0.04248047 0.11376953 -0.07910156 -0.078125 0.20019531 -0.13964844 -0.024291992 -0.2734375 -0.119628906 0.25976562 -0.24707031 0.06201172 -0.31640625 0.16601562 -0.33398438 -0.38476562 0.119140625 -0.024414062 0.4375 -0.026733398 0.056640625 0.014587402 0.030883789 -0.17480469 0.053710938 0.029296875 -0.109375 -0.07128906 -0.057617188 0.07421875 0.31835938 -0.49609375 -0.15527344 -0.3359375 0.22753906 0.07714844 0.123046875 0.21679688 0.0054626465 0.08105469 0.140625 -0.1953125 -0.20800781 0.0033721924 0.29492188 -0.16796875 0.041748047 -0.09863281 -0.0011901855 0.234375 -0.016357422 -0.07128906 0.15039062 0.17871094 0.47070312 -0.31054688 -0.24707031 0.028076172 0.21972656 -0.19628906 0.06738281 0.30664062 -0.12158203 -0.33203125 -0.20214844 0.087890625 -0.27148438 0.095703125 -0.025878906 0.10498047 -0.10546875 0.40820312 -0.07910156 0.039794922 -0.035888672 -0.06347656 0.31445312 0.25585938 0.26171875 0.17089844 0.36523438 0.13183594 -0.107421875 -0.06738281 -0.17675781 -0.16015625 -0.07910156 -0.07421875 0.014709473 0.064453125 0.15917969 -0.083496094 -0.08496094 -0.057861328 -0.18457031 -0.30859375 -0.06738281 -0.08642578 0.33398438 -0.18652344 -0.29492188 -0.055908203 0.22070312 -0.00078582764 -0.23632812 -0.14550781 0.35546875 0.063964844 0.20214844 0.18457031 -0.002456665 0.24023438 -0.5 -0.19824219 -0.1328125 0.21289062 0.08154297 0.0056152344 0.25195312 -0.265625 0.14550781 0.01586914 -0.059814453 0.27539062 -0.328125 -0.04345703 -0.044433594 -0.048095703 0.14550781 0.40429688 -0.079589844 0.28125 0.039794922 0.06591797 -0.05883789 -0.104003906 -0.453125 -0.018920898 0.00793457 -0.1796875 -0.19921875 -0.32617188 -0.08300781 -0.14355469 0.27734375 -0.30273438 0.28515625 -0.17773438 0.24707031 -0.029418945 -0.07324219 0.111328125 0.04248047 -0.21191406 -0.14160156 0.095703125 -0.049804688 0.296875 -0.026245117 -0.2578125 0.034423828 -0.16601562 -0.09375 -0.37695312 -0.07519531 -0.0002822876 -0.07861328 0.31640625 -0.13085938 -0.48046875 0.25 -0.13476562 0.00020885468 0.044189453 -0.045654297 -0.123046875 0.31640625 0.021240234 -0.004211426 -0.16503906 -0.088378906 -0.16308594 -0.20800781 -0.4296875 -0.28515625 -0.18652344 0.0115356445 -0.07373047 0.060058594 0.14160156 0.18164062 0.1953125 -0.36328125 -0.068847656 0.17773438 0.100097656 -0.30078125 -0.23144531 -0.014221191 -0.15332031 -0.06201172 0.27148438 -0.16503906 -0.125 0.104003906 0.19042969 0.29296875 -0.12695312 0.3203125 -0.041503906 0.12890625 0.23828125 0.06201172 0.3125 0.10546875 0.07080078 -0.21777344 -0.1484375 -0.025390625 -0.023925781 -0.16992188 -0.24414062 -0.0074157715 -0.092285156 0.037353516 -0.35351562 0.087402344 -0.08642578 0.16699219 0.012451172 0.037841797 0.1171875 -0.0390625 -0.24316406 -0.19335938 0.056396484 0.046142578 -0.29101562 0.08642578 0.453125 
Christmas 0.16699219 0.1015625 -0.24804688 0.16894531 -0.061279297 -0.20996094 -0.18164062 0.115234375 0.08300781 0.171875 -0.007232666 -0.08496094 0.16796875 0.092285156 0.14160156 -0.07763672 -0.15625 -0.1015625 -0.09814453 -0.07128906 0.33398438 0.04321289 0.1640625 -0.047607422 0.18261719 0.25976562 -0.049072266 -0.068847656 0.23730469 -0.041503906 -0.17382812 -0.03466797 0.016601562 0.08544922 0.06640625 0.041259766 -0.08154297 -0.45898438 -0.265625 -0.15429688 0.24121094 -0.09716797 0.14160156 -0.18945312 0.16015625 -0.041748047 -0.34570312 0.2890625 -0.10058594 0.08300781 -0.21582031 0.23144531 -0.1953125 0.111816406 0.09277344 -0.19824219 0.06347656 -0.23535156 -0.08544922 -0.19921875 -0.083496094 0.12988281 -0.16992188 0.22851562 -0.040283203 0.14355469 -0.1015625 -0.119140625 0.10888672 -0.07470703 0.2734375 -0.19824219 -1.7523766e-05 0.20117188 0.20703125 -0.005432129 -0.12695312 -0.0234375 0.22167969 -0.08496094 -0.020996094 -0.12109375 0.10888672 -0.18261719 -0.33203125 0.056640625 -0.25585938 0.07128906 0.106933594 0.34960938 0.09863281 0.122558594 -0.064941406 -0.22558594 -0.28710938 -0.05517578 0.14355469 0.018432617 0.025024414 -0.16503906 0.015625 -0.047607422 0.25390625 0.23144531 0.06591797 -0.20117188 0.18066406 0.087402344 -0.22851562 -0.36132812 -0.03125 -0.16796875 0.29296875 0.038085938 -0.11425781 -0.037841797 0.023925781 -0.1171875 -0.064453125 0.19824219 -0.036621094 -0.041015625 0.118652344 -0.11230469 -0.032714844 0.125 0.007019043 -0.29101562 -0.111328125 -0.21386719 0.033447266 -0.2265625 -0.005065918 -0.20703125 -0.123535156 0.118652344 -0.13964844 0.024780273 0.17285156 -0.03930664 -0.17382812 -0.15136719 0.17675781 0.02746582 0.14550781 0.15234375 0.21972656 -0.25 -0.17089844 -0.10839844 0.18847656 -0.015625 -0.003616333 0.15722656 0.10498047 -0.27148438 0.32421875 -0.20019531 -0.18066406 -0.096191406 -0.20117188 0.1640625 0.07080078 0.20117188 0.14257812 -0.09082031 0.087890625 -0.08544922 -0.20800781 0.38671875 -0.13183594 -0.01586914 -0.13085938 -0.35351562 -0.12695312 0.37890625 0.328125 -0.11035156 0.091308594 -0.014099121 -0.099609375 -0.07763672 0.008972168 -0.045166016 0.09375 -0.19335938 -0.053222656 -0.16015625 0.20117188 0.12158203 -0.16601562 0.033935547 0.06347656 -0.09863281 0.18261719 0.26953125 0.21875 -0.110839844 -0.2578125 0.040527344 -0.032714844 -0.123535156 -0.109375 0.072753906 0.328125 0.10449219 0.18457031 0.013671875 -0.12402344 0.071777344 -0.06542969 -0.041259766 0.080078125 0.15136719 -0.055664062 0.07128906 0.37695312 -0.0859375 0.03466797 0.16308594 -0.00982666 0.30859375 0.16210938 -0.15917969 -0.19921875 -0.080566406 -0.11279297 -0.08496094 -0.09472656 0.100097656 -0.07519531 -0.02722168 -0.19824219 0.06542969 -0.08984375 0.0390625 -0.005340576 -0.34570312 -0.13085938 -0.14941406 -0.087402344 0.071777344 -0.07421875 -0.40039062 -0.38867188 -0.09472656 -0.087402344 0.002319336 0.16699219 -0.20800781 -0.28320312 0.14160156 0.140625 0.11621094 -0.12890625 0.203125 0.0006866455 0.06738281 0.10205078 0.16015625 -0.203125 -0.24121094 -0.04736328 -0.3828125 -0.28710938 0.15917969 -0.10449219 0.22851562 -0.41796875 0.007080078 0.099609375 0.41015625 0.34570312 -0.09765625 0.22363281 -0.24121094 0.103027344 -0.08251953 -0.017944336 -0.037109375 -0.088378906 0.12207031 -0.12988281 0.19921875 0.08642578 0.01550293 0.07861328 0.19238281 0.025390625 0.03881836 -0.021362305 -0.037597656 -0.17578125 0.125 0.025390625 -0.0047302246 -0.22460938 -0.061279297 0.27148438 -0.09472656 
Eid -0.04736328 0.29101562 -0.10449219 0.36914062 -0.032470703 -0.10888672 0.088378906 -0.24511719 0.040039062 0.27539062 -0.01977539 -0.265625 0.033935547 0.104003906 -0.11767578 0.002243042 -0.13769531 -0.26757812 0.0028533936 0.059326172 -0.109375 -0.13378906 0.17773438 0.21289062 0.3046875 0.16308594 0.296875 -0.33789062 0.23046875 -0.13964844 -0.45117188 -0.18554688 0.34375 0.20117188 -0.28125 -0.1484375 -0.22753906 -0.51953125 -0.22460938 -0.33789062 0.296875 0.3203125 0.28125 0.030273438 0.03564453 -0.30078125 -0.26171875 0.26367188 -0.16015625 -0.17285156 0.20507812 -0.18261719 0.030273438 0.3046875 0.0025787354 -0.02331543 -0.014587402 0.24902344 -0.061035156 -0.12011719 -0.14355469 -0.01928711 -0.39648438 0.23632812 0.05810547 0.033691406 -0.12988281 0.007171631 0.16894531 -0.27148438 -0.049316406 0.06347656 -0.37695312 0.24023438 0.234375 -0.59765625 -0.29492188 0.123046875 0.1953125 -0.044677734 -0.19824219 -0.3125 0.13769531 -0.3359375 -0.42578125 -0.087890625 -0.13769531 -0.12890625 -0.12451172 0.41015625 0.33398438 -0.23535156 -0.35742188 -0.28320312 -0.19921875 -0.1875 0.31445312 0.2421875 0.13769531 -0.0045166016 0.2421875 -0.18261719 0.107421875 0.31835938 0.30859375 -0.052490234 0.13378906 0.08886719 -0.22558594 -0.0028533936 0.22753906 -0.20800781 0.46679688 -0.22753906 -0.09277344 -0.05810547 -0.08935547 -0.22558594 0.12890625 -0.026000977 0.052246094 0.51171875 -0.203125 -0.24316406 0.19042969 -0.15917969 -0.10595703 -0.5 0.12402344 0.018798828 -0.13476562 0.13378906 0.095214844 -0.20117188 -0.26757812 -0.30078125 0.11767578 0.16113281 0.34375 0.0154418945 0.22753906 -0.096191406 0.1484375 -0.14550781 -0.06640625 0.029785156 0.06689453 0.042236328 0.123535156 -0.19628906 0.024414062 0.032958984 -0.0390625 -0.14746094 0.234375 -0.65234375 0.15527344 -0.115234375 -0.043945312 -0.115722656 -0.5625 -0.07861328 -0.045410156 0.036621094 0.10449219 -0.16113281 0.3125 -0.007232666 0.122558594 0.328125 -0.30273438 -0.11035156 -0.44921875 -0.23144531 -0.049072266 0.21582031 0.65234375 -0.14550781 0.034423828 -0.22265625 -0.07861328 0.03930664 0.08251953 -0.25 0.31640625 -0.37695312 -0.028808594 -0.19628906 0.13574219 0.578125 -0.31054688 0.22949219 -0.22558594 -0.026733398 -0.1640625 -0.064453125 -0.1484375 0.14648438 -0.12695312 0.2578125 -0.21386719 -0.19628906 -0.28710938 -0.33203125 0.44140625 -0.27929688 -0.044189453 0.111816406 -0.008483887 0.15136719 0.05859375 0.14160156 -0.099121094 -0.23144531 -0.10546875 0.10595703 -0.06542969 0.09765625 -0.23828125 -0.16992188 0.234375 0.09033203 0.061767578 -0.02722168 -0.20605469 -0.050048828 -0.03173828 0.007598877 -0.083496094 0.064453125 -0.071777344 0.31054688 -0.008911133 0.10253906 -0.12988281 -0.24511719 0.14648438 0.08642578 -0.3984375 0.13574219 0.18847656 -0.067871094 -0.17773438 -0.103515625 -0.16210938 -0.24414062 -0.1328125 -0.13085938 -0.056640625 0.20117188 0.088378906 0.31054688 -0.06347656 0.17675781 0.14355469 0.06347656 -0.31835938 0.014221191 0.12597656 0.016357422 -0.12988281 -0.08691406 -0.06225586 -0.17480469 -0.0049438477 0.044433594 0.13085938 0.01574707 0.14648438 0.14746094 -0.053710938 0.015014648 0.034423828 0.15332031 0.54296875 -0.25390625 0.07763672 -0.07421875 -0.18554688 -0.2578125 -0.020751953 0.04345703 -0.29882812 0.14550781 0.35351562 0.013977051 -0.029663086 0.08984375 0.037109375 -0.14160156 -0.075683594 -0.08105469 -0.107421875 -0.048583984 0.07470703 0.22460938 -0.19628906 -0.11230469 -0.0074768066 0.2109375 
Abraham 0.12890625 -0.008300781 0.096191406 -0.068847656 0.18945312 0.09716797 0.15234375 -0.07861328 -0.109375 0.15820312 0.084472656 -0.18847656 -0.39648438 0.265625 -0.30078125 0.17773438 0.14941406 -0.041503906 0.014404297 0.23242188 0.03491211 0.07519531 -0.067871094 -0.11425781 0.3671875 -0.13964844 -0.34375 -0.34570312 0.1640625 -0.14160156 -0.18554688 -0.00579834 0.055419922 -0.071777344 -0.19140625 0.060791016 0.111816406 0.015625 -0.14941406 -0.23632812 0.020019531 -0.03564453 -0.043701172 0.24707031 -0.009216309 -0.026855469 -0.08154297 -0.083496094 0.1015625 -0.24902344 0.10644531 -0.041503906 -0.3671875 -0.32226562 0.033447266 0.022216797 -0.119628906 0.16503906 -0.40039062 -0.08105469 0.375 -0.16113281 -0.015258789 0.17480469 -0.084472656 0.07080078 -0.020141602 -0.029418945 0.08105469 -0.053955078 0.26367188 0.022583008 -0.12890625 0.4375 -0.19921875 -0.088378906 -0.05517578 0.20214844 0.03112793 -0.071777344 0.088378906 0.28320312 0.26367188 -0.33984375 0.027709961 -0.05444336 0.016601562 0.08251953 0.3203125 -0.12207031 0.24609375 -0.2109375 -0.38867188 -0.296875 -0.29101562 0.10839844 0.10205078 0.25390625 -0.12695312 -0.08544922 0.14648438 -0.24707031 0.21289062 -0.109375 0.1796875 -0.30078125 0.07763672 0.083496094 -0.14648438 0.17285156 -0.075683594 -0.100097656 0.28320312 -0.111816406 0.07861328 -0.0035095215 0.05859375 -0.14941406 0.15625 0.013000488 -0.0010223389 0.0058288574 -0.07714844 -0.20019531 -0.21191406 -0.03466797 0.14257812 -0.03955078 -0.012145996 0.14746094 -0.47070312 0.033691406 -0.21972656 -0.16503906 0.00592041 -0.10107422 0.30078125 0.18261719 0.034423828 -0.06542969 0.11816406 0.12695312 0.02709961 -0.09375 -0.051513672 -0.01977539 0.3828125 -0.04663086 -0.22167969 0.068359375 0.06982422 -0.125 0.17871094 0.072265625 -0.09667969 0.21484375 0.22265625 0.28710938 0.29296875 -0.25390625 -0.087890625 -0.23925781 0.38671875 -0.068359375 -0.25195312 -0.13085938 0.06298828 -0.03564453 0.106933594 -0.0020141602 -0.22363281 -0.05444336 -0.014465332 -0.037841797 0.111328125 -0.05419922 0.24902344 -0.078125 -0.021118164 0.099609375 -0.099609375 -0.33789062 -0.033447266 0.118652344 -0.2109375 0.056152344 0.030883789 -0.23242188 0.19921875 0.23242188 -0.18945312 0.05834961 0.19042969 0.09033203 -0.12597656 0.008422852 0.026977539 0.055908203 0.083496094 -0.088378906 0.13964844 -0.09277344 0.08251953 0.007873535 0.083984375 -0.017700195 0.06591797 0.19238281 -0.15917969 -0.25 0.048339844 0.12792969 0.103027344 -0.24414062 -0.19726562 0.14746094 0.21289062 0.14257812 0.053710938 -0.08251953 -0.14746094 0.057861328 -0.1171875 0.10498047 0.001953125 -0.018066406 -0.040771484 0.125 -0.02331543 -0.18847656 -0.14453125 0.06298828 -0.109375 0.053955078 -0.07470703 -0.053955078 0.07861328 -0.030029297 -0.17089844 3.6478043e-05 -0.080566406 -0.13964844 -0.017944336 -0.06933594 0.012451172 -0.009033203 0.28125 -0.14648438 -0.059570312 0.029907227 0.024169922 0.0030670166 -0.3828125 -0.03466797 0.30664062 -0.05883789 -0.024291992 -0.115234375 -0.029663086 -0.11230469 0.107910156 0.13183594 0.13378906 0.057128906 0.09326172 0.140625 0.23046875 -0.087890625 0.06933594 0.028442383 0.06591797 -0.078125 -0.017089844 0.26171875 0.09277344 -0.13378906 0.012878418 -0.04736328 -0.087402344 0.17480469 -0.09423828 -0.016967773 -0.095703125 -0.119140625 0.06298828 -0.044189453 0.060791016 -0.018554688 0.13476562 -0.140625 0.03564453 0.07910156 -0.04248047 -0.053466797 0.11816406 -0.119140625 -0.22753906 -0.068847656 -0.04321289 0.12890625 
Ibrahim 0.16503906 0.4140625 0.13769531 -0.18945312 0.14550781 0.046875 -0.16894531 -0.2578125 -0.040283203 0.08984375 -0.0024261475 -0.0061035156 -0.20996094 0.20019531 -0.18261719 0.16601562 0.09716797 -0.29492188 0.025268555 0.26953125 -0.15039062 -0.12060547 -0.026367188 0.052001953 0.29296875 0.0039367676 0.11816406 -0.024414062 0.38671875 -0.17480469 -0.08691406 -0.064453125 0.24804688 0.072265625 -0.20214844 0.12207031 0.0115356445 0.07763672 -0.23535156 -0.13183594 -0.12988281 0.14746094 -0.033935547 0.15917969 0.1484375 -0.015075684 -0.140625 -0.06738281 -0.030273438 -0.21777344 0.0703125 -0.13378906 0.21679688 -0.08251953 -0.07373047 0.19140625 -0.2421875 0.22558594 -0.27929688 -0.21289062 0.11376953 -0.006591797 0.022827148 0.0859375 0.14941406 -0.14453125 0.19824219 -0.06689453 0.099121094 -0.07763672 -0.16992188 0.022216797 -0.029052734 0.091308594 -0.29492188 -0.16113281 0.0035705566 0.083984375 0.059814453 -0.032226562 -0.14257812 -0.037841797 0.063964844 -0.107910156 -0.095214844 0.08251953 0.007598877 0.17382812 -0.07861328 0.1875 0.17382812 -0.40234375 -0.4609375 -0.19628906 -0.055664062 0.011230469 0.123046875 0.33007812 -0.07324219 0.060302734 0.053710938 -0.22558594 0.01928711 0.103515625 -0.037841797 0.16894531 0.18652344 -0.059326172 -0.095703125 0.1484375 0.119628906 -0.071777344 0.12207031 0.05517578 -0.1015625 -0.19628906 -0.123046875 0.057128906 0.12988281 -0.27148438 -0.061523438 0.28515625 -0.4453125 -0.15234375 -0.15234375 -0.06298828 -0.29101562 -0.11621094 0.032958984 0.10546875 0.14648438 0.052246094 -0.053710938 -0.053466797 -0.0703125 -0.16015625 0.17871094 0.022949219 0.007293701 0.20605469 0.18359375 0.044433594 0.056640625 -0.06298828 -0.07470703 -0.01159668 -0.028442383 -0.119628906 0.107910156 0.15820312 -0.008728027 0.18652344 -0.140625 0.111328125 0.14648438 -0.34960938 -0.015625 -0.079589844 0.08984375 -0.19628906 -0.084472656 -0.103027344 0.18457031 0.020385742 -0.19921875 0.041015625 0.115234375 -0.03149414 0.100097656 0.14550781 -0.020141602 0.036865234 -0.34765625 -0.24707031 -0.08496094 -0.21289062 0.33007812 -0.18066406 0.15722656 -0.10449219 0.08544922 -0.15820312 -0.078125 -0.080078125 -0.16796875 0.107421875 0.104003906 0.028930664 -0.07128906 0.22070312 -0.16992188 0.13769531 -0.06542969 0.20410156 -0.16015625 0.18261719 -0.20214844 0.024780273 -0.22558594 -0.16503906 -0.11230469 -0.064453125 -0.05102539 -0.22558594 0.14648438 -0.22753906 0.36523438 0.010009766 0.100097656 -0.23632812 0.095214844 -0.087890625 -0.06298828 -0.036865234 -0.021118164 0.12792969 -0.23535156 -0.0051879883 -0.111328125 0.001663208 -0.19824219 -0.041992188 -0.09765625 -0.20507812 0.018798828 -0.057861328 -0.052246094 0.11669922 0.07421875 -0.28320312 0.13085938 -0.049560547 0.012634277 -0.032226562 0.030151367 -0.030639648 0.19335938 0.25195312 -0.034179688 0.06689453 0.13769531 -0.09716797 -0.23828125 0.049560547 0.103515625 -0.14355469 -0.04248047 0.1484375 -0.12011719 -0.12011719 0.38085938 0.20117188 -0.22558594 0.19726562 0.21972656 0.15039062 -0.22265625 0.0134887695 -0.060546875 -0.13085938 0.028198242 0.18164062 -0.123535156 -0.061523438 0.171875 -0.009216309 -0.15332031 -0.10986328 0.19238281 0.22851562 -0.010375977 -0.12158203 0.068847656 0.20410156 0.12207031 -0.032226562 -0.32617188 -0.3515625 0.096191406 0.0134887695 0.052246094 -0.22265625 -0.1796875 -0.103027344 0.08642578 -0.3125 0.071777344 -0.0054626465 0.11328125 -0.08886719 -0.19628906 0.14257812 0.087402344 -0.13476562 -0.2890625 0.26367188 -0.008666992 -0.104003906 -0.072753906 0.3125 
Maryam -0.15722656 0.075683594 0.16601562 0.020263672 0.22558594 0.004119873 -0.068847656 -0.30273438 -0.40429688 0.025390625 -0.046142578 -0.07910156 -0.17773438 0.13964844 -0.24023438 0.114746094 0.27148438 -0.13671875 -0.064453125 0.22460938 -0.34179688 -0.0138549805 -0.17871094 -0.14257812 0.23046875 -0.10839844 0.13574219 -0.076660156 0.1484375 -0.65234375 -0.49414062 -0.016845703 -0.064453125 0.014953613 -0.10498047 -0.06982422 0.07421875 0.080078125 -0.43164062 -0.13867188 0.24023438 0.33984375 0.024658203 -0.03100586 -0.0015411377 0.140625 -0.10546875 0.020263672 0.111328125 -0.23730469 -0.059326172 -0.119140625 0.25585938 0.1171875 -0.08496094 0.22167969 -0.19042969 0.33398438 -0.012268066 -0.41796875 0.12109375 -0.26757812 -0.09667969 0.13574219 -0.056396484 -0.035888672 0.25 0.15234375 0.16503906 -0.22753906 -0.16699219 0.34765625 -0.21582031 -0.075683594 -0.16894531 0.075683594 0.14746094 0.34570312 0.29492188 -0.0014724731 -0.0625 -0.00491333 0.13574219 -0.09765625 -0.27148438 0.18554688 0.14355469 0.20117188 -0.19140625 -0.049072266 0.032226562 -0.63671875 -0.16210938 -0.033203125 -0.096191406 -0.052490234 -0.16992188 0.34375 0.042236328 0.15625 0.04711914 -0.16699219 -0.34375 -0.029296875 0.041748047 0.11376953 -0.08935547 -0.15332031 -0.0859375 0.06298828 0.029663086 -0.20019531 0.20214844 0.19921875 -0.045654297 -0.076660156 -0.23242188 -0.18164062 0.12890625 -0.30664062 -0.19238281 0.23535156 -0.08203125 -0.22070312 -0.114746094 0.20117188 -0.2578125 0.013366699 -0.0546875 0.29296875 -0.07519531 0.21191406 -0.13476562 -0.059570312 -0.1953125 -0.3515625 0.2578125 -0.0077209473 0.30664062 0.17578125 0.20605469 0.33007812 -0.024291992 -0.15722656 -0.08154297 0.25585938 -0.1640625 0.26953125 -0.16894531 -0.16992188 0.23632812 -0.031982422 -0.09033203 -0.038085938 0.3359375 -0.110839844 -0.005218506 -0.04736328 0.35351562 -0.29296875 -0.20410156 0.10498047 0.21386719 -0.16210938 -0.07324219 -0.014404297 -0.05053711 -0.04736328 -0.048339844 0.10449219 -0.23828125 0.115234375 -0.32421875 -0.34960938 -0.08154297 0.015625 0.53515625 -0.17578125 0.07080078 -0.17578125 -0.037353516 -0.33007812 -0.38085938 0.029174805 -0.008911133 0.20800781 -0.16699219 -0.02746582 -0.22167969 0.13867188 -0.18554688 0.2421875 0.12011719 0.30273438 -0.359375 0.103027344 -0.19042969 0.12109375 -0.23339844 0.032226562 -0.24023438 -0.018188477 -0.12988281 -0.47070312 0.08886719 -0.1171875 0.032958984 0.35546875 0.035888672 0.025268555 0.10888672 -0.0030822754 -0.234375 -0.30273438 -0.08544922 -0.07080078 -0.49414062 0.20410156 -0.12402344 -0.31054688 -0.030639648 0.14941406 0.11376953 0.017578125 -0.010925293 -0.079589844 -0.022460938 -0.23632812 -0.125 -0.12792969 0.087890625 0.067871094 -0.05053711 -0.028198242 0.10253906 0.0099487305 0.41210938 -0.05078125 0.013427734 0.34765625 0.0126953125 -0.1328125 -0.19628906 -0.18554688 0.046875 0.07519531 -0.37695312 -0.05078125 -0.20117188 0.028442383 0.203125 0.020507812 -0.05126953 -0.080078125 0.030883789 0.005218506 -0.12109375 0.07373047 -0.17089844 0.07421875 0.0025177002 0.13671875 -0.26757812 -0.18652344 0.16113281 0.24511719 0.1171875 0.15039062 0.12597656 0.20605469 -0.118652344 0.09814453 -0.0079956055 0.25585938 0.19628906 0.08154297 0.15625 -0.11230469 0.11376953 -0.037109375 0.15332031 -0.042236328 -0.16796875 -0.11035156 0.21972656 -0.29296875 -0.15429688 -0.0703125 0.08105469 0.24023438 -0.014831543 -0.045654297 -0.0099487305 -0.3515625 -0.059814453 0.08203125 0.12597656 0.11425781 0.23828125 0.3203125 
Mary 0.12060547 -0.12792969 -0.12792969 0.13183594 0.092285156 -0.16015625 -0.22460938 -0.07763672 -0.06689453 -0.008850098 -0.014831543 0.053710938 0.12695312 0.20703125 0.045898438 0.060302734 0.15332031 0.064941406 0.16015625 0.18554688 -0.20605469 -0.103515625 0.17773438 -0.11230469 0.061279297 0.020019531 0.057373047 0.08251953 -0.14257812 -0.104003906 -0.059814453 -0.11669922 -0.10595703 -0.20214844 0.05444336 -0.27929688 0.1640625 0.23632812 -0.15234375 0.171875 -0.05883789 0.049560547 -0.18359375 -0.33007812 -0.18066406 0.007598877 -0.021362305 -0.0390625 0.17773438 0.13183594 0.06298828 0.13183594 -0.03515625 -0.12109375 0.041503906 -0.020263672 -0.13476562 -0.1875 0.24511719 -0.23925781 -0.027954102 -0.02319336 -0.09472656 0.13476562 -0.02722168 -0.09716797 0.040527344 0.06347656 -0.119628906 0.033203125 0.26953125 -0.17382812 0.09863281 -0.023071289 0.05517578 0.15429688 -0.05517578 0.056640625 0.29101562 0.17089844 0.18457031 -0.1640625 0.04321289 -0.16308594 0.03149414 -0.09082031 -0.26171875 0.29492188 0.33398438 -0.23632812 0.16308594 -0.15527344 0.18652344 -0.014709473 0.07470703 0.18457031 -0.050048828 -0.0039367676 -0.09667969 -0.1171875 -0.20117188 -0.016113281 -0.11767578 -0.23144531 -0.053222656 0.114746094 -0.09375 -0.049560547 -0.037597656 -0.0071105957 0.045410156 0.11425781 0.060058594 0.05078125 -0.025268555 0.0072021484 -0.095214844 -0.14550781 0.19238281 0.032714844 -0.24121094 0.096191406 0.25585938 -0.23632812 -0.2265625 0.0042419434 -0.02746582 0.11328125 -0.022949219 0.25195312 0.033935547 0.04272461 -0.20019531 -0.055419922 0.16894531 0.13476562 -0.20800781 -0.053955078 0.034179688 -0.024414062 0.04638672 -0.037109375 0.048583984 -0.3828125 0.025024414 0.22460938 0.087890625 -0.12597656 -0.27148438 -0.17871094 0.06640625 -0.12695312 -0.053222656 0.19140625 0.028564453 0.06689453 0.14160156 0.21777344 0.16308594 -0.034423828 -0.009887695 0.22363281 0.07714844 -0.021240234 -0.022216797 -0.083496094 -0.19042969 -0.265625 -0.021484375 -0.17382812 -0.22167969 0.27539062 0.08935547 -0.27734375 -0.016479492 -4.029274e-05 -0.0038909912 0.13867188 -0.2421875 0.044921875 -0.24023438 -0.052246094 0.038330078 0.06298828 -0.075683594 -0.15332031 -0.17773438 -0.20605469 -0.12792969 0.030029297 0.03857422 -0.04663086 0.05517578 0.13378906 -0.14355469 0.22070312 0.24414062 -0.022583008 0.024658203 0.016723633 -0.07763672 -0.15625 0.0017166138 -0.07714844 0.17480469 0.018432617 -0.028686523 0.24902344 0.11669922 -0.21972656 0.11621094 -0.10644531 -0.041992188 0.018798828 -0.23632812 0.091796875 -0.017822266 0.09375 0.24121094 -0.08984375 0.24609375 -0.018188477 0.40234375 -0.20507812 -0.049316406 -0.20605469 0.10498047 0.041503906 0.010864258 0.072753906 -0.115722656 0.05078125 -0.27734375 0.13769531 0.053955078 -0.1953125 0.26171875 -0.24121094 -0.111816406 0.11425781 0.057128906 -0.08496094 0.09375 -0.09716797 0.022094727 0.14160156 -0.35546875 -0.025268555 -0.107910156 -0.125 -0.087402344 -0.06738281 0.040771484 0.068847656 -0.19921875 -0.05126953 -0.052246094 -0.0065612793 -0.047851562 -0.12890625 -0.06738281 0.234375 0.06542969 -0.016479492 0.07373047 0.24902344 -0.061767578 -0.008056641 -0.011047363 0.12988281 0.14648438 0.10253906 -0.0062561035 0.31835938 0.08300781 -0.16601562 0.17675781 0.059326172 0.13085938 0.12060547 0.025634766 0.0015335083 0.096191406 0.13085938 0.024536133 -0.060302734 0.09033203 -0.0859375 0.028930664 0.125 -0.103515625 0.014587402 -0.10644531 -0.12988281 0.010070801 -0.18261719 -0.008117676 -0.11279297 0.029052734 0.22949219 
Bible 0.35546875 -0.4140625 -0.06201172 0.03564453 0.26171875 0.07470703 0.12109375 0.23535156 0.061767578 0.24804688 0.10205078 0.13964844 -0.076660156 0.26367188 -0.0063171387 -0.007659912 -0.31640625 0.25585938 0.009521484 -0.31835938 0.33007812 0.017211914 0.052978516 -0.05053711 -0.015563965 -0.07861328 -0.07373047 -0.041503906 0.068359375 -0.12597656 0.14257812 -0.052001953 -0.3359375 0.0859375 0.095214844 -0.022583008 0.07324219 -0.053222656 0.13964844 -0.111816406 0.012634277 -0.003540039 0.059570312 0.37109375 -0.076171875 0.13574219 -0.11425781 0.17089844 -0.24804688 0.0074157715 -0.296875 -0.044433594 -0.21191406 -0.22070312 0.50390625 0.14550781 -0.107910156 0.03173828 -0.16894531 -0.3203125 0.46484375 0.11669922 0.05908203 0.08154297 0.24511719 -0.27539062 -0.28710938 -0.0056152344 -0.01940918 -0.08984375 0.052490234 -0.016967773 0.07080078 0.16601562 -0.057373047 0.18652344 -0.030761719 0.10058594 0.38476562 -0.07714844 -0.13671875 -0.028320312 0.0028839111 -0.11669922 -0.17089844 0.032226562 0.036621094 0.3359375 0.18652344 0.04711914 -0.24511719 -0.12451172 0.1875 -0.34765625 0.026489258 -0.13867188 0.05493164 -0.033203125 0.12109375 -0.2109375 -0.27539062 0.13378906 0.3125 -0.013061523 0.21582031 0.022949219 0.09765625 -0.05029297 -0.21679688 -0.040771484 0.08544922 0.122558594 -0.022705078 -0.03564453 0.58203125 0.16210938 0.091308594 0.07519531 0.41015625 0.14160156 0.140625 -0.15332031 0.23339844 -0.024902344 -0.36132812 0.24707031 -0.1640625 -0.33007812 -0.26367188 0.0115356445 -0.31835938 -0.088378906 -0.22265625 -0.21582031 0.48632812 0.13476562 0.06542969 0.15917969 0.20898438 0.171875 0.118652344 -0.049316406 0.40820312 -0.29101562 -0.15429688 -0.014160156 0.06689453 -0.171875 0.08544922 -0.23632812 0.25390625 -0.09082031 -0.23535156 0.08935547 0.0009918213 -0.11816406 -0.118652344 -0.06933594 0.18554688 -0.115234375 0.067871094 0.049804688 0.16699219 -0.016601562 -0.079589844 0.23730469 0.21777344 0.38867188 -0.25195312 -0.18359375 0.0703125 0.061279297 -0.033935547 -0.047851562 0.43945312 -0.0703125 -0.103027344 -0.16894531 -0.375 -0.21191406 -0.29296875 -0.28125 0.01171875 0.011230469 -0.07763672 -0.20703125 -0.017456055 0.01361084 0.23730469 0.088378906 0.18554688 -0.024536133 -0.1875 0.037841797 -0.28320312 0.328125 0.056396484 -0.18261719 -0.03540039 -0.33984375 -0.14160156 -0.19238281 0.080078125 -0.140625 -0.24023438 0.15234375 0.099609375 -0.18847656 -0.08935547 -0.012084961 -0.31640625 0.18457031 -0.21289062 -0.3984375 0.07470703 -0.067871094 0.18164062 0.18164062 0.056640625 -0.26367188 0.11669922 -0.08691406 0.30859375 -0.026367188 0.052978516 -0.16308594 0.0038604736 0.09765625 0.24804688 -0.09423828 0.22851562 -0.17773438 -0.3046875 0.080078125 0.10449219 -0.107421875 0.122558594 0.08984375 0.13964844 0.16699219 0.026977539 -0.3984375 -0.02758789 -0.6015625 -0.21972656 -0.2109375 0.052246094 0.024902344 -0.16210938 -0.0625 -0.07421875 0.048095703 0.106933594 -0.25195312 0.14648438 -0.06542969 -0.18652344 -0.38085938 0.33984375 -0.12597656 -0.024291992 0.019165039 -0.076171875 -0.30273438 -0.19628906 0.22167969 0.15820312 0.07128906 0.17089844 -0.051513672 -0.018676758 0.3671875 -0.24414062 0.20019531 0.20507812 -0.21386719 0.12890625 -0.203125 0.27929688 -0.03112793 0.28515625 -0.096191406 0.23535156 0.04321289 -0.025024414 0.03125 0.028076172 0.21289062 -0.2734375 0.3125 0.15917969 -0.08300781 -0.17773438 -0.009155273 -0.001876831 0.072265625 0.044677734 -0.13964844 -0.016357422 0.26953125 
Quran 0.22070312 -0.14160156 0.48828125 0.15234375 0.07080078 0.030517578 -0.17089844 0.30273438 0.008117676 0.53125 0.03515625 -0.43945312 -0.22558594 0.12890625 -0.19140625 -0.028564453 -0.48242188 -0.17089844 -0.20019531 0.034423828 0.26757812 -0.12988281 0.22753906 -0.11376953 -0.22949219 -0.019165039 -0.022827148 -0.17285156 0.24414062 -0.051757812 0.13964844 0.21875 -0.52734375 0.01574707 0.064453125 -0.026855469 0.1484375 -0.13378906 -0.13769531 0.16992188 0.29882812 0.2109375 0.2734375 0.28710938 -0.022338867 -0.111328125 0.037597656 -0.12792969 -0.34765625 0.17578125 0.0087890625 -0.038330078 -0.010681152 0.06542969 0.25 0.032226562 -0.11035156 -0.265625 -0.37695312 -0.44726562 0.5234375 0.15136719 0.19433594 0.010498047 0.20117188 -0.17089844 -0.32226562 0.046875 -0.032958984 -0.21191406 -0.34960938 -0.12890625 0.013793945 0.0859375 -0.40039062 -0.34960938 0.19140625 -0.20019531 0.48632812 -0.18847656 0.031982422 -0.08935547 0.09716797 -0.08544922 -0.0107421875 0.020019531 0.5625 0.546875 -0.022460938 0.47460938 -0.23339844 -0.31835938 -0.07714844 -0.328125 0.095214844 -0.28515625 -0.005645752 0.27734375 0.14941406 -0.30859375 -0.15625 0.22460938 0.011047363 0.26757812 0.17089844 0.13476562 -0.0099487305 -0.140625 -0.059814453 -0.14453125 0.068847656 -0.09765625 -0.14257812 0.22460938 0.4453125 -0.14941406 -0.16992188 0.038085938 0.11376953 0.24121094 -0.16210938 -0.13574219 0.484375 0.006164551 0.12695312 0.15820312 -0.34765625 -0.50390625 0.009338379 0.21972656 -0.13476562 0.07714844 -0.171875 -0.107910156 0.6640625 0.017700195 0.25976562 -0.09667969 0.62109375 0.04711914 0.27929688 0.23828125 -0.08105469 -0.12988281 -0.36914062 -0.29101562 0.12109375 0.20898438 -0.010925293 -0.37109375 0.38476562 0.13574219 -0.103515625 -0.38867188 0.29492188 -0.62890625 0.16992188 -0.16796875 0.38867188 -0.06689453 -0.265625 -0.049072266 0.25195312 -0.11376953 -0.23046875 0.017578125 0.53515625 -0.22558594 -0.21679688 -0.28515625 0.0126953125 -0.042236328 -0.52734375 -0.36914062 0.16699219 -0.17578125 0.46484375 -0.37304688 0.010437012 -0.6953125 0.06298828 0.020141602 -0.020263672 0.028564453 -0.16699219 -0.14941406 -0.08105469 0.48046875 0.16894531 0.390625 -0.006134033 -0.061035156 0.15136719 0.30859375 -0.21191406 0.21484375 -0.5546875 -0.25195312 -0.24316406 -0.3125 -0.32617188 -0.19433594 -0.13476562 -0.33984375 0.24804688 -0.15527344 0.17578125 -0.22460938 -0.359375 -0.022705078 -0.05102539 0.20996094 -0.1953125 -0.6015625 0.44335938 0.26171875 -0.21875 0.15332031 -0.042236328 -0.36132812 -0.021240234 -0.064941406 -0.06347656 -0.22753906 -0.044189453 -0.296875 -0.12402344 0.296875 0.6015625 -0.31445312 0.25 -0.13085938 0.21875 0.1640625 -0.034179688 -0.2734375 0.35546875 0.13671875 0.064453125 0.44335938 0.06542969 0.08642578 0.091796875 -0.51953125 -0.27539062 -0.24707031 -0.1953125 -0.060058594 -0.18847656 0.11621094 0.08642578 0.11230469 -0.15722656 -0.31835938 0.23144531 0.084472656 -0.008911133 -0.048339844 0.22460938 0.17480469 -0.20898438 0.36914062 -0.5078125 -0.5234375 -0.021240234 0.29101562 0.23925781 -0.35351562 0.45703125 0.3515625 0.08935547 0.20507812 -0.17675781 0.23339844 -0.037597656 0.20507812 0.16601562 -0.30664062 -0.51953125 -0.16113281 0.32617188 0.29296875 -0.14648438 -0.039794922 0.328125 -0.23730469 0.14453125 0.16699219 -0.27929688 0.23925781 0.23046875 -0.3828125 -0.08496094 -0.05883789 0.045898438 0.5703125 0.17382812 -0.26171875 0.061767578 0.36523438 
church 0.22753906 -0.1484375 -0.13183594 0.060546875 0.06542969 -0.036132812 0.037353516 0.043945312 0.1015625 0.06591797 0.31640625 -0.037109375 -0.052246094 0.079589844 0.02331543 0.075683594 -0.15039062 0.20800781 -0.037597656 -0.12402344 0.43554688 -0.10107422 0.15820312 -0.15136719 0.20898438 -0.21875 -0.23925781 0.14355469 0.15332031 -0.25976562 -0.0014038086 -0.10595703 -0.08251953 0.0010299683 -0.032714844 -0.28710938 0.38476562 -0.014587402 0.114746094 0.08642578 0.123046875 0.053955078 0.16796875 -0.044677734 -0.10888672 0.025878906 -0.10595703 0.009460449 -0.14453125 0.092285156 0.099121094 -0.018310547 -0.04345703 0.03100586 0.22851562 -0.06591797 -0.45703125 0.04345703 0.021972656 -0.17871094 0.123046875 -0.07519531 0.0018997192 0.011657715 0.114746094 -0.140625 -0.14160156 0.03112793 0.046875 -0.103515625 0.048828125 0.20703125 0.0069885254 0.17675781 -0.2109375 0.22460938 0.06298828 0.0064697266 0.13671875 0.014404297 -0.088378906 -0.19433594 0.13867188 0.28125 -0.171875 -0.040283203 -0.12158203 0.12011719 0.40429688 0.05834961 -0.08496094 -0.15722656 0.115234375 -0.34765625 0.024536133 0.052490234 -0.24023438 -0.24902344 0.02319336 -0.10986328 -0.3046875 0.25585938 0.2265625 0.17089844 -0.044189453 -0.029907227 0.12792969 0.15625 -0.01953125 -0.052734375 -0.28515625 0.22460938 -0.038085938 0.06542969 0.24804688 -0.03564453 0.2421875 0.053222656 0.21191406 0.42773438 0.033935547 -0.18066406 0.061767578 -0.10449219 -0.38867188 0.171875 -0.0017242432 -0.026367188 -0.088378906 0.0014266968 0.11376953 -0.15625 0.08544922 -0.12792969 0.3359375 -0.122558594 -0.140625 0.02709961 0.49804688 5.054474e-05 -0.16308594 -0.16894531 0.15917969 -0.010253906 0.08886719 0.114746094 0.24023438 -0.119140625 -0.29882812 -0.05029297 0.46484375 -0.18945312 -0.123535156 0.33007812 0.100097656 0.10644531 0.16796875 -0.034179688 0.30273438 -0.1015625 -0.03112793 0.078125 0.05444336 0.09814453 -0.051757812 0.18261719 0.026855469 -0.049560547 -0.057373047 0.0390625 -0.20410156 -0.09765625 0.08251953 -0.20507812 -0.029907227 0.06640625 -0.19726562 0.07519531 0.05053711 0.083984375 -0.265625 0.12792969 0.09814453 -0.10498047 0.015075684 -0.27734375 -0.07128906 0.07714844 0.080566406 -0.01586914 0.09375 0.022460938 -0.057373047 -0.015380859 -0.35742188 0.084472656 -0.029785156 -0.04663086 0.118652344 0.12597656 -0.14160156 -0.03466797 -0.2578125 -0.23046875 0.0070495605 -0.10058594 0.40625 -0.15332031 0.09472656 -0.16699219 -0.06201172 -0.06347656 -0.11767578 -0.27539062 -0.12597656 -0.19628906 -0.32421875 0.24902344 -0.083496094 -0.14941406 -0.095703125 0.022460938 0.28125 0.044433594 0.13964844 -0.23046875 0.009399414 0.12158203 0.328125 -0.10449219 0.15820312 -0.13085938 -0.33984375 0.025512695 -0.0010986328 -0.111328125 0.16699219 -0.12988281 -0.059570312 0.087402344 0.13964844 -0.10107422 0.07763672 -0.20996094 -0.14941406 -0.087890625 -0.14941406 -0.067871094 0.13085938 -0.19238281 -0.09033203 0.21191406 0.23242188 -0.08544922 0.19042969 -0.18457031 0.24511719 -0.20507812 0.14648438 0.016235352 -0.28125 -0.20703125 0.034423828 0.041992188 0.10205078 0.24804688 0.13183594 -0.034423828 -0.041015625 -0.076171875 0.08886719 0.080078125 0.046875 0.034179688 0.111328125 -0.08935547 0.1640625 -0.32226562 0.15527344 -0.15625 0.005126953 0.040527344 0.20117188 0.2734375 -0.09326172 0.06591797 0.22363281 0.0019683838 -0.17578125 0.3671875 0.13769531 -0.080078125 -0.21484375 0.05029297 0.05029297 0.23828125 -0.059570312 -0.16992188 0.12792969 0.106933594 
mosque 0.20019531 -0.05883789 0.29101562 0.052490234 0.024414062 0.040771484 0.01965332 0.064453125 0.14941406 0.37695312 -0.16308594 -0.29296875 -0.23242188 -0.050048828 -0.080566406 -0.15722656 -0.2734375 -0.26367188 0.005706787 -0.099121094 0.26953125 0.04638672 0.15429688 -0.0859375 0.040039062 -0.092285156 0.19140625 -0.123046875 0.12207031 -0.47265625 0.10595703 0.1640625 -0.1640625 0.16992188 -0.37695312 -0.25976562 0.13085938 0.30664062 -0.084472656 -0.25195312 0.04296875 0.19628906 0.15820312 0.111816406 -0.33203125 -0.20996094 -0.17480469 -0.056640625 -0.12060547 0.22949219 0.41210938 -0.10986328 0.13085938 0.021240234 -0.03466797 -0.31445312 -0.3046875 -0.030761719 -0.11425781 -0.60546875 0.23632812 -0.15625 -0.056396484 -0.37890625 0.09277344 0.0023040771 -0.06542969 -0.025512695 0.09472656 -0.3828125 -0.30078125 0.24804688 -0.3203125 -0.037353516 -0.40625 -0.20507812 -0.099609375 -0.15234375 0.15625 -0.20410156 -0.040039062 0.061523438 0.022338867 -0.017211914 -0.16308594 -0.24121094 0.026977539 -0.009643555 0.26367188 0.05493164 -0.123046875 -0.36132812 -0.3125 -0.37109375 0.11816406 -0.21972656 -0.23828125 0.064453125 -0.023071289 -0.11279297 0.017700195 -0.051757812 0.11035156 0.48828125 0.33789062 -0.072753906 0.030517578 0.20898438 0.03540039 -0.068847656 -0.119628906 0.13378906 0.18945312 0.014770508 0.40429688 -0.20996094 0.109375 0.05029297 0.09326172 -0.060302734 0.18652344 0.012084961 -0.14453125 0.03881836 -0.2890625 -0.0859375 -0.20996094 -0.51953125 0.33398438 -0.07128906 0.25195312 -0.47070312 0.07519531 0.10449219 0.32617188 -0.15332031 0.34570312 -0.16992188 0.49804688 0.12158203 -0.091796875 -0.12988281 0.2578125 0.030029297 0.13378906 -0.123535156 0.005554199 0.015991211 -0.048095703 -0.49023438 0.34570312 -0.27734375 0.02734375 -0.079589844 0.12695312 -0.140625 0.021118164 -0.40234375 0.51171875 -0.14941406 -0.2734375 -0.3203125 0.30078125 -0.20214844 -0.1015625 -0.17480469 0.36132812 -0.096191406 -0.061523438 0.41601562 -0.50390625 0.16308594 -0.19433594 -0.28125 -0.119628906 -0.109375 0.08984375 0.083984375 0.09375 -0.16601562 0.13574219 -0.06542969 -0.15722656 -0.029907227 0.33007812 -0.375 0.055908203 0.36523438 0.16210938 0.14746094 -0.13085938 0.056884766 0.25 0.16503906 -0.32617188 0.084472656 -0.375 0.043945312 0.31054688 -0.0070495605 -0.2734375 -0.125 -0.071777344 -0.32226562 0.3984375 -0.25195312 0.48046875 0.171875 0.19042969 -0.4140625 0.12109375 -0.16308594 -0.12890625 -0.484375 -0.23242188 -0.10107422 -0.73828125 0.21679688 -0.0107421875 -0.22949219 -0.20996094 0.06738281 -0.23144531 -0.40039062 0.030273438 -0.17578125 -0.34375 0.27734375 0.21582031 -0.32226562 0.12695312 -0.20410156 0.07470703 0.03112793 -0.027954102 -0.09472656 0.27539062 0.30664062 0.10839844 0.12890625 0.5078125 -0.063964844 0.07861328 -0.22167969 -0.09472656 -0.30273438 -0.08251953 0.20996094 -0.024169922 -0.22460938 0.18457031 0.036865234 0.021362305 -0.12890625 0.10498047 -0.080078125 0.18164062 -0.15136719 -0.20019531 -0.036376953 -0.033691406 -0.21484375 -0.17871094 -0.15332031 0.20898438 0.5625 0.06542969 -0.46679688 0.104003906 0.13183594 -0.0032958984 -0.029541016 -0.10644531 -0.08105469 0.05053711 -0.067871094 0.24023438 -0.28320312 -0.019897461 -0.1796875 0.059326172 0.25976562 -0.08984375 0.20214844 0.10986328 -0.14257812 -0.0027923584 0.22167969 0.0078125 -0.010498047 0.0703125 -0.0625 -0.08935547 -0.019165039 -0.15136719 0.37695312 -0.15429688 -0.17675781 -0.078125 0.2890625 
Christianity 0.6875 -0.17578125 0.21972656 0.24414062 -0.0023040771 0.15917969 -0.032714844 0.18457031 0.037109375 0.1015625 -0.064453125 0.029663086 0.042236328 0.36914062 -0.09277344 0.10546875 -0.110839844 0.003768921 -0.10839844 0.11767578 0.36132812 -0.099121094 0.40039062 -0.13574219 0.083984375 -0.07421875 -0.18261719 0.038330078 0.515625 0.034423828 -0.010070801 -0.05908203 -0.33789062 0.07519531 0.041503906 0.05517578 0.48828125 -0.13574219 0.06298828 0.021972656 0.4765625 -0.009399414 0.019165039 0.0625 -0.07421875 0.036621094 0.048095703 0.16699219 -0.28320312 -0.028930664 0.041992188 -0.059326172 -0.36132812 -0.19921875 0.40234375 0.17871094 -0.11425781 0.2109375 -0.048828125 -0.40039062 0.26953125 -0.018432617 -0.045654297 -0.20605469 0.1328125 -0.11816406 0.0068359375 -0.02722168 -0.068847656 0.05078125 -0.095703125 0.23632812 -0.23828125 0.30273438 -0.02319336 -0.34179688 -0.041259766 -0.0013275146 0.25390625 0.21777344 -0.26171875 -0.16308594 0.140625 0.17089844 0.0018234253 -0.24511719 0.107421875 0.05444336 0.19335938 0.079589844 -0.18261719 -0.1953125 -0.17871094 -0.24023438 -0.022216797 -0.21679688 -0.061767578 -0.10595703 0.44140625 -0.16699219 -0.14550781 0.24804688 0.30859375 0.16699219 0.3125 -0.10839844 -0.18457031 0.08300781 0.048095703 -0.22363281 -0.35351562 -0.012207031 0.0066833496 0.057617188 0.24121094 0.07861328 0.01361084 0.067871094 0.26367188 0.46875 -0.12207031 -0.13964844 0.068847656 0.0072631836 -0.29492188 0.10107422 -0.08496094 0.087402344 -0.32617188 -0.08544922 0.16796875 -0.27734375 -0.17089844 -0.005432129 0.3515625 0.25585938 -0.13671875 0.10253906 0.3359375 0.26367188 -0.029296875 -0.017578125 0.296875 -0.12597656 -0.33007812 0.16699219 0.484375 0.1328125 -0.125 0.023925781 0.4140625 -0.25390625 -0.15429688 0.21386719 0.091308594 -0.0038146973 0.061523438 -0.546875 0.26953125 -0.24707031 -0.21484375 0.123046875 -0.05859375 0.057617188 -0.06347656 0.080078125 0.359375 0.072265625 -0.21679688 0.122558594 0.20019531 0.19726562 0.033203125 -0.296875 0.39257812 0.12792969 -0.061767578 -0.23925781 0.05908203 -0.2734375 -0.29101562 -0.2265625 -0.24707031 -0.036621094 0.028442383 0.036376953 0.068359375 0.045166016 0.083984375 0.015380859 0.03857422 -0.12402344 -0.068359375 0.012329102 0.03100586 0.11767578 -0.07373047 0.084472656 0.03466797 0.041748047 0.16601562 -0.046875 0.12402344 -0.19140625 0.24609375 0.12597656 0.25976562 -0.0016174316 -0.24707031 -0.16113281 -0.421875 0.109375 0.00024318695 -0.29492188 -0.17578125 -0.096191406 -0.17871094 0.265625 0.22070312 -0.19824219 0.06640625 -0.067871094 0.35546875 0.087890625 0.053222656 -0.20605469 -0.13085938 0.08300781 -0.22949219 0.07470703 0.041992188 -0.076660156 -0.15722656 0.01940918 0.34570312 -0.07910156 0.107910156 0.031982422 0.09082031 0.048095703 0.28125 -0.17871094 0.0625 -0.14160156 -0.009094238 -0.021606445 -0.07421875 0.07080078 0.11279297 0.18652344 0.13671875 -0.083984375 0.14257812 -0.029174805 0.022583008 -0.075683594 -0.012207031 -0.119628906 0.21972656 0.00074386597 -0.032714844 0.10498047 0.0076904297 -0.045410156 -0.052978516 0.23828125 0.32226562 -0.27929688 -0.048095703 -0.17675781 -0.09863281 0.08154297 -0.14453125 0.19433594 0.09765625 -0.118652344 0.044921875 -0.3515625 0.12060547 0.14941406 -0.14453125 0.14257812 0.16796875 -0.026000977 -0.036865234 -0.36914062 0.07714844 0.19921875 -0.41992188 0.3046875 -0.095214844 -0.15039062 -0.22070312 0.16210938 -0.0003681183 0.13378906 0.23925781 -0.068847656 0.2421875 0.32421875 
Islam 0.39453125 -0.104003906 0.40234375 0.23632812 -0.21191406 0.16308594 -0.14453125 0.021972656 -0.06542969 0.26171875 -0.08691406 -0.068359375 -0.021728516 0.23632812 -0.32226562 -0.107421875 -0.13671875 -0.12207031 0.009277344 0.14160156 0.13769531 -0.017822266 0.21289062 -0.039794922 0.19335938 0.31054688 -0.028442383 -0.28710938 0.44726562 -0.07519531 0.04296875 -0.023925781 -0.28515625 0.16210938 -0.27148438 0.110839844 0.26953125 0.111328125 -0.049316406 -0.16601562 0.50390625 0.14355469 -0.20019531 -0.04272461 -0.12792969 -0.05834961 0.13671875 -0.09326172 -0.2421875 -0.057617188 0.07324219 -0.15917969 -0.125 0.1796875 0.20800781 0.12792969 -0.08251953 0.16113281 -0.13476562 -0.5078125 0.171875 -0.15625 0.0032348633 -0.14355469 0.23828125 0.05053711 -0.0390625 -0.028564453 0.021484375 0.12402344 -0.26171875 0.49804688 -0.24121094 0.12011719 -0.033691406 -0.5 0.010131836 0.076660156 0.41992188 -0.083496094 0.045898438 -0.05053711 -0.080078125 -0.0033721924 -0.07714844 -0.064941406 -0.12011719 0.27148438 0.0703125 0.110839844 -0.22753906 -0.265625 -0.234375 -0.41210938 0.09716797 -0.37890625 -0.011413574 -0.041992188 0.375 -0.040527344 0.05908203 0.2109375 0.07080078 0.13378906 0.28710938 -0.043701172 -0.22460938 0.025512695 -0.15136719 -0.07519531 -0.06298828 -0.12890625 0.038085938 -0.009216309 0.15332031 0.1484375 -0.29492188 0.24121094 0.18945312 0.20214844 -0.013549805 0.040771484 0.001159668 -0.012878418 -0.26953125 0.008850098 -0.28320312 -0.044677734 -0.13378906 -0.10546875 0.18652344 -0.14160156 -0.3046875 0.171875 0.2734375 -0.0059509277 0.013122559 0.03125 0.44726562 0.21484375 0.25976562 0.125 0.0703125 -0.11328125 -0.41796875 -0.076660156 0.24707031 0.07714844 0.07763672 -0.12792969 0.23828125 0.034423828 -0.12597656 -0.15527344 0.203125 -0.2890625 0.040771484 -0.609375 0.47851562 -0.3515625 -0.33398438 0.16503906 0.099609375 -0.09326172 -0.20214844 -0.087402344 0.36328125 0.16113281 -0.18652344 0.1953125 -0.15039062 0.11767578 -0.33007812 -0.32617188 0.26953125 0.3046875 -0.1328125 -0.22363281 -0.08691406 -0.55078125 0.08251953 -0.24414062 -0.20019531 -0.087402344 0.014953613 0.018310547 0.071777344 0.21484375 -0.055908203 0.106933594 -0.24414062 -0.14550781 0.09375 0.05908203 -0.16894531 0.12792969 -0.083496094 0.21972656 -0.0058898926 -0.28710938 -0.031982422 -0.14550781 0.09863281 -0.21679688 0.30859375 0.024291992 0.25585938 0.0023956299 -0.13867188 -0.12988281 -0.30273438 -0.00044441223 0.014709473 -0.21191406 -0.09765625 0.055419922 -0.5 0.29882812 0.029785156 -0.37109375 0.041259766 -0.2421875 0.21484375 -0.26367188 0.04248047 -0.26171875 -0.06542969 0.11035156 -0.08105469 -0.10058594 0.13183594 -0.04345703 0.10498047 -0.027954102 0.080078125 -0.13378906 0.45898438 -0.012573242 0.14941406 0.12207031 0.4375 -0.18652344 -0.10888672 -0.03466797 -0.040771484 -0.27929688 -0.091308594 0.072753906 -0.07421875 -0.036621094 0.25195312 -0.22753906 -0.110839844 -0.13378906 0.19042969 -0.0038604736 -0.23242188 0.040771484 0.16113281 0.20214844 -0.15136719 0.3125 -0.16113281 -0.08105469 0.26953125 0.25195312 0.16894531 -0.39453125 0.012756348 -0.02709961 -0.0057373047 0.26757812 -0.1640625 0.095703125 0.125 0.025024414 0.06298828 -0.23632812 -0.16894531 0.013183594 -0.22167969 -0.004852295 -0.06689453 0.009460449 0.10644531 -0.46875 0.060791016 0.19238281 -0.390625 0.12695312 0.028198242 -0.068847656 -0.08642578 0.04638672 -0.29296875 0.17285156 0.328125 -0.33007812 0.26367188 0.3203125 